digraph Tree {
node [shape=box, style="filled, rounded", color="black", fontname="helvetica"] ;
edge [fontname="helvetica"] ;
0 [label="Sex_male <= 0.5\ngini = 0.457\nsamples = 334\nvalue = [216, 118]\nclass = Not Survived", fillcolor="#f3c6a5"] ;
1 [label="gini = 0.0\nsamples = 118\nvalue = [0, 118]\nclass = Survived", fillcolor="#399de5"] ;
0 -> 1 [labeldistance=2.5, labelangle=45, headlabel="True"] ;
2 [label="gini = 0.0\nsamples = 216\nvalue = [216, 0]\nclass = Not Survived", fillcolor="#e58139"] ;
0 -> 2 [labeldistance=2.5, labelangle=-45, headlabel="False"] ;
}